MTP
version = 1.1.0
potential_name = MTP1m
species_count = 3
potential_tag =
radial_basis_type = RBChebyshev
 min_dist = 2.3
     max_dist = 5
     radial_basis_size = 8
     radial_funcs_count = 2
alpha_moments_count = 8
alpha_index_basic_count = 5
alpha_index_basic = {{0, 0, 0, 0}, {0, 1, 0, 0}, {0, 0, 1, 0}, {0, 0, 0, 1}, {1, 0, 0, 0}}
alpha_index_times_count = 5
alpha_index_times = {{0, 0, 1, 5}, {1, 1, 1, 6}, {2, 2, 1, 6}, {3, 3, 1, 6}, {0, 5, 1, 7}}
alpha_scalar_moments = 5
alpha_moment_mapping = {0, 4, 5, 6, 7}